34 16
8 -0.6168049 -0.1644955 -0.15938972 0.72698796 0.24242096 0.46616155 -0.5019714 -0.0872742 0.081489064 0.40054914 -0.030995384 -0.08233382 -0.7562223 0.17938246 -0.12088587 -0.3612218
3 -0.32505727 -0.22858195 -0.1442384 0.377633 0.074509665 0.21587393 -0.30705777 -0.055280156 -0.24238361 0.22717975 -0.19297063 -0.21454974 -0.5062735 -0.0011001766 -0.22915095 -0.23175606
4 -0.5321261 -0.15835255 -0.09238577 0.763371 0.55405176 0.5708479 -0.4886548 0.060538772 0.09987261 0.41328746 0.02314625 -0.034257017 -0.7242726 0.18819734 -0.29388428 -0.0915395
13 -0.601056 -0.14683902 -0.19091932 0.58133084 0.41041964 0.6794592 -0.9442797 0.20515329 0.19762966 0.36452737 0.041412067 -0.06531298 -0.4882234 0.37761584 0.069239005 -0.30784157
1 -0.42566964 -0.15956154 -0.20395657 0.23854336 0.37327877 0.35933477 -0.40073183 0.13035543 -0.32186294 0.24663147 -0.1007807 -0.31338522 -0.46176016 -0.20912062 -0.4661985 0.34484446
18 -0.78751916 -0.08266602 -0.13745625 0.9600058 0.51627874 0.63373953 -0.2795928 -0.11709826 0.28959438 0.13113025 0.23431525 -0.057124402 -0.4595941 0.14449765 -0.042021 0.070315585
9 -0.64461493 -0.29992503 -0.32953545 0.75891995 0.3841416 0.42662802 0.009677984 -0.05105898 -0.17076233 -0.4459338 -0.06465443 -0.5048451 0.18376614 0.19627237 0.07809889 0.0916763
28 0.040587164 -0.36837268 0.16761248 0.5332718 0.0960301 0.34165403 -0.036691096 -0.15026467 -0.50496316 0.040728852 -0.09593851 -0.01215103 -0.4092538 -0.09245302 -0.29784486 -0.32879138
25 0.21020803 -0.43873197 -0.008881693 -0.03797509 0.017116709 0.23544993 -0.2701362 0.13642675 -1.0064242 -0.17824303 -0.2729923 -0.4173398 -0.02520348 -0.31115028 -0.420284 0.07343262
32 0.22246274 -0.3059166 0.07333903 0.19034648 0.30286583 0.13902731 -0.13808681 0.11817119 -0.60427344 0.18214878 -0.26644054 -0.079400234 -0.42313704 -0.10529458 -0.5859597 0.012134226
33 0.16520323 -0.37569216 0.051061504 0.66196966 0.43421286 0.041284773 0.1648381 -0.028009353 -0.31447253 0.10272619 -0.3058333 0.013332758 -0.4671933 0.24486265 -0.48759338 -0.25053054
31 -0.38862142 -0.25875148 -0.2268415 0.45887408 0.061370052 0.019646933 -0.05338496 -0.14845847 -0.28016132 0.25676978 -0.31882906 -0.2906872 -0.6490755 -0.01910945 -0.38456807 -0.23376414
19 -0.42512196 -0.2538384 -0.20971674 0.52257437 0.06754155 0.012038023 0.3670984 -0.3081235 -0.3573027 -0.24666512 -0.23489153 -0.4123986 -0.18522012 -0.12724864 -0.21464518 0.0075894073
6 -0.11220145 0.04390818 0.12042197 -0.056970626 0.7418294 0.67439276 -0.8194825 0.43545493 -0.27163684 0.8059315 0.21782264 0.21632423 -0.8686192 -0.46110508 -0.8630031 0.7732064
2 -0.68638176 -0.20245416 -0.30031326 0.6223534 0.19594364 0.43626705 -0.70265007 0.029917866 0.14521915 0.25225094 -0.11588314 -0.2685649 -0.45710114 0.37946 0.13157786 -0.4817215
7 -0.3467066 -0.25785312 -0.41718838 -0.4017825 0.31996566 0.68926865 -1.3507149 0.74479955 -0.6878312 -0.14917561 -0.19667487 -0.87231433 0.3755586 -0.07824421 -0.10610292 0.48606235
14 -0.36514187 -0.21497458 -0.071031444 0.75536674 0.41040164 0.5059458 -0.5514381 0.05414037 0.1129278 0.28980577 -0.05624111 -0.0037504004 -0.52731866 0.41240406 -0.094326325 -0.38433397
22 -0.69668096 -0.09079696 -0.21041045 0.65103835 0.28543457 0.5143815 -0.48597464 -0.07616918 0.17158721 0.38011992 0.07984148 -0.09746771 -0.6824509 0.09712014 -0.10738053 -0.07922024
20 -0.409511 -0.20999616 -0.10425941 0.61657685 0.39638072 0.39656878 -0.17256068 -0.04638687 -0.10055668 0.17986229 -0.03286414 -0.101098895 -0.48472512 0.024803797 -0.33512455 0.06466017
34 0.29987964 -0.5004789 -0.0105797 0.36887676 0.14080341 0.030762373 -0.012721274 0.08670938 -0.6477383 -0.2589485 -0.45619982 -0.29973954 0.023132004 0.25724515 -0.24000128 -0.4306031
10 -0.46280992 -0.3127162 -0.18701659 0.7947703 0.378294 0.29519767 -0.13610326 -0.034391288 -0.071246095 0.00083134876 -0.16273727 -0.26062715 -0.3623799 0.30436334 -0.13310583 -0.24186671
24 0.004834654 -0.3788668 -0.36452675 0.1342829 0.43326697 -0.1958287 0.038123734 0.26265302 -0.633841 -0.06464321 -0.6109669 -0.5975751 -0.1944965 0.06543622 -0.68363553 0.27419353
16 -0.5205577 -0.31338304 -0.3411556 0.6656753 0.25523546 -0.018643811 0.5773492 -0.32033697 -0.47625604 -0.336011 -0.2926291 -0.5214954 -0.19136678 -0.16604254 -0.44284785 0.3003569
29 -0.58188903 -0.27602684 -0.2804687 0.3686926 0.00929518 0.24413814 -0.28313765 -0.061780386 -0.33175826 0.0146864075 -0.18915682 -0.48896024 -0.29283142 -0.095824674 -0.11686012 -0.09149314
30 -0.27119815 -0.3042309 -0.01614786 0.6131329 0.09045976 0.10377998 0.56473726 -0.38444695 -0.55050665 -0.25748867 -0.09199682 -0.24802032 -0.291715 -0.3778498 -0.39550573 0.12798223
27 0.018918287 -0.31666476 0.07634038 0.82748127 0.43834853 -0.0018083379 0.70984644 -0.30163857 -0.31945255 -0.10800811 -0.15054739 0.021810526 -0.38281617 -0.003792244 -0.5527493 0.061837018
21 -0.54319435 -0.36064905 -0.32445303 0.6609292 0.033273574 -0.019210935 0.5622983 -0.35982567 -0.5498721 -0.38050252 -0.31128323 -0.5790335 -0.19101048 -0.2052248 -0.29439494 0.03088377
15 -0.50584 -0.3092089 -0.30566505 0.57449615 0.098290555 -0.0465176 0.48646194 -0.36028805 -0.47461838 -0.27015075 -0.22902435 -0.49969184 -0.2837964 -0.21437079 -0.341138 0.17756492
23 -0.48509175 -0.34804475 -0.27584696 0.5594696 0.0028120002 -0.0711185 0.49581492 -0.38033092 -0.5726254 -0.36778224 -0.275449 -0.5982716 -0.16747397 -0.26984537 -0.34569618 0.1545512
26 0.012845982 -0.37616926 -0.157094 -0.08023985 -0.5363793 -0.39259276 0.11688998 -0.25329724 -0.90144557 0.19195771 -0.60641176 -0.49619246 -0.60261947 -0.39966145 -0.5035677 -0.40126738
12 -0.57175845 -0.21500939 -0.1695857 0.57383496 0.3164217 0.6664747 -0.9067041 0.14787668 0.04782828 0.3198322 -0.022574864 -0.17005934 -0.46669874 0.28693286 0.009223816 -0.35326862
11 -0.6365038 -0.13904414 -0.29293138 0.24617256 0.5018614 0.7550083 -0.86349934 0.31800535 -0.2290498 0.11835174 0.07309735 -0.40398958 -0.20476054 -0.113927126 -0.22875287 0.43496746
5 -0.54448193 -0.12301358 -0.14797659 0.4158243 0.5776391 0.70559126 -0.67439556 0.22845663 -0.06679803 0.1738395 0.15208298 -0.21514913 -0.29376036 -0.010504801 -0.24585636 0.34681168
17 -0.8515323 -0.15418138 -0.41359812 0.24978629 0.4520968 0.61638755 -0.36279815 0.13339967 -0.4342547 -0.15277712 0.06600424 -0.67073786 -0.05081118 -0.429782 -0.32564566 0.85045236
